tree
num_class=1
label_index=0
max_feature_idx=109
objective=binary
sigmoid=1
feature_names=weight  customerid  callhisid   call_times  connect_times   has_callin  has_staff_hangup    avg_waittime    min_waittime    max_waittime    avg_onlinetime  min_onlinetime  max_onlinetime  all_call_waittime   all_call_onlinetime comments    datasource  location    callresult  calltime    mobile_type phone   gap is_old  one_month_innum two_month_innum three_month_innum   day str_zhengxin    str_jujie   str_zhuce   str_mingtian    str_mendian str_kaolv   str_feilv   str_daka    str_guanji  str_bu  str_jie online_ascending_num    online_decsending_num   waittime_ascending_num  waittime_decsending_num avg_comments_cnt

Tree=0
num_leaves=36
split_feature=3 6 1 2 6 1 2 1 2 1 1 2 4 2 1 2 6 2 1 2 2 1 1 1 6 6 2 2 1 1 2 1 1 2 2
split_gain=0.7438171659150612 0.31878449552573329 1.4628254446165272 0.25698333406739238 0.09899696696288629 0.096547490101102085 0.32110140281957911 0.13263356925449443 0.16828564686062464 0.12993785325750196 0.17816283585034398 0.11761566760935693 0.091449082562434114 0.070910498303817349 0.27679159293126077 0.06489900597651399 0.059708892171748573 0.04091286334316635 0.02767254703454114 0.027397346370378273 0.024950881673191816 0.02679883305728481 0.020840328315330225 0.020372138235003945 0.018395845738282901 0.023944314163458102 0.017235635339361011 0.027584439218500734 0.014713434990596852 0.014264329594666947 0.010446883014381569 0.0086930652831256339 0.0057226345167862291 0.0050120730575144989 0.0049992448802811396
threshold=0.5 6.5 5.5 2.5 16.5 13.5 12.5 18.5 19.5 6.5 5.5 2.5 0.5 37.5 33.5 22.5 22.5 10.5 3.5 6.5 10.5 10.5 37.5 41.5 11.5 13.5 53.5 43.5 30.5 4.5 7.5 8.5 2.5 4.5 26.5
decision_type=0 0 0 0 0 0 0 0 0 0 0 0 0 0 0 0 0 0 0 0 0 0 0 0 0 0 0 0 0 0 0 0 0 0 0
left_child=1 5 4 -4 24 9 17 -8 -9 10 11 12 18 14 15 -10 -6 -7 32 31 21 30 -16 -24 -3 -26 27 -15 -2 -13 -21 33 -1 -11 -17
right_child=28 2 3 -5 16 6 7 8 13 19 -12 29 -14 26 22 34 -18 -19 -20 20 -22 -23 23 -25 25 -27 -28 -29 -30 -31 -32 -33 -34 -35 -36
leaf_parent=32 28 24 3 3 16 17 7 8 15 33 10 29 12 27 22 34 16 17 18 30 20 21 23 23 25 25 26 27 28 29 30 31 32 33 34
leaf_value=-0.097041420071052001 -0.080185619438441283 -0.098795958333116052 -0.084247712700040209 -0.071763850270285409 -0.089573770571912029 -0.090337956235682984 -0.098762864911879605 -0.088489544908259443 -0.093761367224670641 -0.098336274239346447 -0.090022547399828026 -0.097260273893748792 -0.091484374949029196 -0.095909073172836271 -0.091310308042259702 -0.099314374897495797 -0.095307570928762755 -0.084853336114413369 -0.093647316471739295 -0.096012490947169821 -0.098724832180730832 -0.094450091646760881 -0.086494022031514697 -0.090800600938846732 -0.094718170969176438 -0.098142676198694281 -0.094713937419200811 -0.099377414234646161 -0.075507775470582128 -0.099602187963440184 -0.098125585692278541 -0.09729968600212055 -0.095636363640146813 -0.099783197830630929 -0.097766303681712879
leaf_count=100 55 67 69 83 54 52 108 84 68 70 84 56 86 81 61 57 51 54 69 54 53 91 56 50 58 58 54 87 51 68 59 66 60 61 65
internal_value=0 -0.94600552799368554 -0.91500023212243153 -0.78617652623395406 -0.95668122964295044 -0.95274030177377356 -0.94207615333205186 -0.95098637502943406 -0.94294173046038698 -0.95995874134902903 -0.94804097230888262 -0.95709560316903086 -0.9449646821794585 -0.95079963026487369 -0.93975344719516274 -0.96896080555894282 -0.9272062264964912 -0.87089430549702096 -0.95753840093790743 -0.97453591848444521 -0.96715560986667615 -0.96099576397336839 -0.89428337565032745 -0.88069855667493568 -0.97299859322847315 -0.96371789577235534 -0.97055434122428175 -0.97687056068362654 -0.78517950018693927 -0.98511825632551275 -0.97152563744926557 -0.98556996379099959 -0.96524993288834271 -0.99069755258515124 -0.9852751249853523
internal_count=2400 2294 440 152 288 1854 877 771 663 977 523 439 315 579 357 190 105 106 229 454 257 204 167 106 183 116 222 168 106 124 113 197 160 131 122


Tree=1
num_leaves=34
split_feature=7 3 5 1 7 1 1 5 5 7 7 7 7 5 7 7 1 1 1 1 1 5 1 1 1 5 1 1 1 1 1 1 1
split_gain=1.2641204313924845 0.72465370678145291 0.44288377196625106 1.6751391642721956 0.63697328307416257 0.27769773216797589 0.26197196995033778 0.46661993423469994 0.2546036171044932 0.20550845589904299 0.15480162794590058 0.19169048131452371 0.14617422895457821 0.22895397277065399 0.26531941993161468 0.124305897187309 0.084636020573498172 0.066778051985494358 0.051034770514931438 0.042349381387623453 0.057493474296961722 0.039348835118914849 0.029627896475545867 0.087310506495271056 0.015681145759884885 0.011916107533537001 0.011903709503926052 0.011469147732384499 0.0052362446637914672 0.007372013931217225 0.001131286693627942 0.00068593854780374386 0.00029345468435337807
threshold=14.5 0.5 7.5192307692307692 5.5 23.5 10.5 10.5 2.3887362637362637 0.66969696969696946 20.5 20.5 24.5 7.5 7.9399999999999995 11.5 30.5 5.5 32.5 6.5 14.5 20.5 2.2886904761904763 37.5 43.5 2.5 1.5760368663594471 4.5 4.5 8.5 11.5 52.5 28.5 3.5
decision_type=0 0 0 0 0 0 0 0 0 0 0 0 0 0 0 0 0 0 0 0 0 0 0 0 0 0 0 0 0 0 0 0 0
left_child=12 2 6 10 -5 -6 18 8 -8 -9 -4 -12 16 14 -14 -11 24 25 -2 28 -21 -16 31 -24 -1 -10 -15 32 -18 -30 -25 -22 -26
right_child=1 -3 3 4 5 -7 7 9 17 15 11 -13 13 26 21 -17 19 -19 -20 20 22 -23 23 30 27 -27 -28 -29 29 -31 -32 -33 -34
leaf_parent=24 18 1 10 4 5 5 8 9 25 15 11 11 14 26 21 15 28 17 18 20 31 21 23 30 32 25 26 27 29 29 30 31 32
leaf_value=-0.086176625324549005 -0.086703816010462217 -0.064169045271416356 -0.089599321145980515 -0.06001274717196077 -0.081727965972422115 -0.066253903784207535 -0.078244212908241365 -0.069311093738091981 -0.091091779214394625 -0.085294363065411702 -0.077183808406090182 -0.086419019382288478 -0.077637397353428131 -0.08896657537722949 -0.084805312987971476 -0.075157322474399768 -0.091116000865263114 -0.085273338681761998 -0.091088608741310959 -0.08604348680454485 -0.090725323461333218 -0.089197452362919927 -0.084338831670712905 -0.091259544674583401 -0.08820919561004073 -0.088648288366841341 -0.091482588746244792 -0.086566093705813529 -0.089290518360818416 -0.090947371957125434 -0.090349458223676848 -0.091317283675540428 -0.088519734242157852
leaf_count=108 51 90 93 91 64 75 57 50 66 54 54 90 70 83 70 55 129 98 79 84 52 51 53 51 78 55 50 66 75 65 56 56 81
internal_value=0 -0.82174918128007801 -0.82821629579110234 -0.7971356936969578 -0.690872710442196 -0.76518404458304079 -0.85193655269519164 -0.83293600691619318 -0.86346757952842135 -0.76701731259280037 -0.85776127423593274 -0.83330553391248097 -0.88010683004315637 -0.85792821344114778 -0.8320145768775099 -0.80490486376695103 -0.88727191830876417 -0.88329802340635244 -0.89240399321674591 -0.8957258255782109 -0.88633066959514228 -0.86723061021431724 -0.89602639429170827 -0.8834684396239072 -0.8728718870523855 -0.90046064631246081 -0.8972649573018231 -0.8783622833971575 -0.9060156123459856 -0.90114729395752724 -0.90813866217731964 -0.91018727425197599 -0.88360928876633094
internal_count=2400 1122 1032 467 230 139 565 435 276 159 237 144 1278 324 191 109 954 219 130 621 352 121 268 160 333 121 133 225 269 140 107 108 159


Tree=2
num_leaves=34
split_feature=7 3 5 1 7 1 1 5 5 7 7 7 7 5 7 7 1 1 5 1 1 5 1 1 4 1 5 7 1 1 1 1 1
split_gain=1.1219220430227779 0.64293757029037124 0.39578164602011157 1.4828027736615468 0.54842765919268999 0.24042878665433776 0.23447843147084768 0.41336951603284433 0.2255213856003877 0.1789603518163716 0.13715693888553915 0.16944481962433855 0.12961078353407629 0.20168632702353761 0.23293738048077728 0.10867105828909018 0.074836370102275396 0.059745759659065811 0.052988040892458343 0.038569469358606057 0.051174953917950461 0.035372843135306198 0.026613575857183491 0.079678505977227587 0.020954983466509702 0.021920774297498724 0.010692027124008519 0.0095283091074520598 0.0056311763259557779 0.004707251704473947 0.0064219991482730165 0.0010199677314659539 0.00066726654394955176
threshold=14.5 0.5 7.5192307692307692 5.5 23.5 10.5 10.5 2.3887362637362637 0.66969696969696946 20.5 20.5 24.5 7.5 7.9399999999999995 11.5 30.5 5.5 32.5 4.0199999999999996 14.5 20.5 2.2886904761904763 37.5 43.5 0.5 2.5 1.5760368663594471 12.5 3.5 8.5 11.5 52.5 28.5
decision_type=0 0 0 0 0 0 0 0 0 0 0 0 0 0 0 0 0 0 0 0 0 0 0 0 0 0 0 0 0 0 0 0 0
left_child=12 2 6 10 -5 -6 18 8 -8 -9 -4 -12 16 14 -14 -11 24 26 -2 29 -21 -16 32 -24 25 -1 -10 -15 -27 -18 -31 -25 -22
right_child=1 -3 3 4 5 -7 7 9 17 15 11 -13 13 27 21 -17 19 -19 -20 20 22 -23 23 31 -26 28 -28 -29 -30 30 -32 -33 -34
leaf_parent=25 18 1 10 4 5 5 8 9 26 15 11 11 14 27 21 15 29 17 18 20 32 21 23 31 24 28 26 27 28 30 30 31 32
leaf_value=-0.081155918675707261 -0.079726743035450631 -0.058615598057027443 -0.08277397874877318 -0.05480650165285289 -0.075151004946838462 -0.060627042303789062 -0.071975064779476045 -0.063549023035749094 -0.084218575690200026 -0.078627562538120477 -0.070967079628682636 -0.07974381699884843 -0.071418852035472588 -0.082076196909404431 -0.078187852000898297 -0.069048704435415109 -0.0842321823724516 -0.07864604266371189 -0.084286449989119258 -0.079364546610430728 -0.083829148752941604 -0.08240258164742835 -0.077689240106824764 -0.084376351432652971 -0.081667283607423632 -0.079568949337205416 -0.081874780162045357 -0.084241038567931581 -0.077909582065248909 -0.08249188103089887 -0.084057855747156629 -0.083501121497899886 -0.084420436160499046
leaf_count=90 50 90 93 91 64 75 57 50 66 54 54 90 70 78 70 55 129 98 80 84 52 51 53 51 123 54 55 55 66 75 65 56 56
internal_value=0 -0.75693721686731863 -0.76312188986653962 -0.73344544739071593 -0.63275956995909455 -0.70246236915552462 -0.78582479121964988 -0.76765986347277837 -0.79677751560462684 -0.70502731998743073 -0.79128581861714664 -0.76801981292419208 -0.81255004945668385 -0.79142157555512027 -0.76683864040373739 -0.74080473147492643 -0.81938300929096786 -0.81569966201968014 -0.82460900489447164 -0.82743368228226288 -0.81835998044433178 -0.80026150148771868 -0.82762572085022557 -0.8155822988332192 -0.80568026050819874 -0.79808731252355547 -0.83214959983916226 -0.82881791997959653 -0.7871294518928168 -0.83738100510389002 -0.83270726060019196 -0.83947658060611674 -0.84122145378757218
internal_count=2400 1122 1032 467 230 139 565 435 276 159 237 144 1278 324 191 109 954 219 130 621 352 121 268 160 333 210 121 133 120 269 140 107 108


Tree=3
num_leaves=35
split_feature=7 3 5 1 7 1 1 5 5 7 7 7 7 5 7 7 1 1 1 1 1 5 1 1 1 6 1 5 1 1 1 1 1 1
split_gain=1.0486835442079609 0.59497164606074193 0.37055828154331039 1.3713802385250062 0.49152255254380606 0.22714279082535782 0.22127400412063025 0.38497917208901811 0.21084649770699571 0.16290681622426106 0.12860236909185119 0.15767585911728332 0.1216732785566137 0.18820747372957669 0.21564147674374112 0.099901628303054935 0.070382327075378726 0.056664246819025266 0.051271288170873675 0.037185551362966862 0.04836459716862862 0.033630315261035548 0.025371296718290637 0.076786815824327448 0.015372779798525471 0.011485570453658056 0.010336213885949519 0.010199123879992555 0.0047192640227677884 0.012218317866327766 0.00097831882821353133 0.0007232000787951165 0.00068000703021198206 0.00032510143701358629
threshold=14.5 0.5 7.5192307692307692 5.5 22.5 13.5 10.5 2.3887362637362637 0.66969696969696946 20.5 20.5 24.5 7.5 7.9399999999999995 11.5 30.5 5.5 32.5 6.5 14.5 20.5 2.2886904761904763 37.5 43.5 2.5 11.5 4.5 1.5760368663594471 9.5 7.5 52.5 11.5 28.5 3.5
decision_type=0 0 0 0 0 0 0 0 0 0 0 0 0 0 0 0 0 0 0 0 0 0 0 0 0 0 0 0 0 0 0 0 0 0
left_child=12 2 6 10 -5 -6 18 8 -8 -9 -4 -12 16 14 -14 -11 24 27 -2 28 -21 -16 32 -24 -1 -15 33 -10 29 -18 -25 -30 -22 -26
right_child=1 -3 3 4 5 -7 7 9 17 15 11 -13 13 25 21 -17 19 -19 -20 20 22 -23 23 30 26 -27 -28 -29 31 -31 -32 -33 -34 -35
leaf_parent=24 18 1 10 4 5 5 8 9 27 15 11 11 14 25 21 15 29 17 18 20 32 21 23 30 33 25 26 27 31 29 30 31 32 33
leaf_value=-0.074120951119667322 -0.074530076153506819 -0.053873727060249892 -0.077435243685627375 -0.049217736214581899 -0.066940901071989897 -0.048740943129940387 -0.066828618834819678 -0.058683323257763265 -0.078883864322020283 -0.073306103842104564 -0.065844615538087944 -0.07444288856476948 -0.066302388143888155 -0.078578419495139759 -0.072894693093795995 -0.063980844434197257 -0.078855011994250213 -0.073355969242169791 -0.079062404963889901 -0.074051266683258274 -0.078464850309379178 -0.077077469577803259 -0.072359569212085639 -0.079038455951557562 -0.076162204387118237 -0.076223551992773905 -0.074571424189155022 -0.076551995153169544 -0.079292588063010261 -0.076718906731377268 -0.078164965207467491 -0.078705487513989869 -0.079073095829760312 -0.076498892246221625
leaf_count=108 51 90 93 79 98 53 57 50 66 54 54 90 70 72 70 55 85 98 79 84 52 51 53 51 78 61 66 55 53 66 56 65 56 81
internal_value=0 -0.70463595672334944 -0.71071964853610159 -0.68158785024542901 -0.58380420119179199 -0.6429254745865679 -0.73308852210805731 -0.71517520689194691 -0.74382855369798884 -0.65392117225258817 -0.73837045519324751 -0.71549677745306528 -0.75931263215621636 -0.73849136375065194 -0.71438020578400663 -0.68865779692681262 -0.7660586608404899 -0.76250564679138788 -0.77149061666583829 -0.77401433833972288 -0.76494667104114922 -0.74715831357121432 -0.77412879813075697 -0.76216355153969806 -0.75253688874425684 -0.77531485448382631 -0.75813673016560457 -0.77884386691486129 -0.78397010947643053 -0.77963126542665884 -0.78610471909579671 -0.78950985647350314 -0.78766149852930856 -0.76326725538332807
internal_count=2400 1122 1032 467 230 151 565 435 276 159 237 144 1278 324 191 109 954 219 130 621 352 121 268 160 333 133 225 121 269 151 107 118 108 159


Tree=4
num_leaves=33
split_feature=5 2 5 5 2 5 5 5 2 5 7 7 5 2 2 5 2 2 5 5 7 2 2 5 2 2 2 2 2 2 2 2
split_gain=1.0279111311074303 0.80631727873813475 0.68833063536773764 0.3390494241943145 0.66001107961923822 0.33630552778249978 0.23609164913538194 0.20232458362404637 0.16520460742007259 0.14138449896300642 0.18666369578617292 0.13861812932105977 0.3866479555055804 0.11272996911549171 0.08469202558982758 0.081950849860064068 0.067411238334329937 0.065165270409949017 0.066535093452515071 0.090326871574795575 0.058692170196820825 0.032662442439260531 0.087320610343425642 0.0247103966684179 0.016200290815646667 0.022832870359422941 0.016164481346308435 0.021188537923137574 0.020042968745215717 0.012312859954022315 0.050209835696001903 4.3409213503764477e-06
threshold=1.9055059523809523 11.5 3.8132267441860463 6.5840909090909081 2.5 15.366666666666667 8.9439393939393952 7.5192307692307692 22.5 4.5277777777777768 15.5 9.5 0.60303030303030303 2.5 4.5 1.0108695652173911 26.5 1.5 15.928571428571431 22.5625 16.5 34.5 40.5 13.291666666666668 4.5 21.5 15.5 12.5 8.5 0.5 1.5 6.5
decision_type=0 0 0 0 0 0 0 0 0 0 0 0 0 0 0 0 0 0 0 0 0 0 0 0 0 0 0 0 0 0 0 0
left_child=11 3 8 9 17 6 -6 -4 -3 10 -2 13 -13 29 -8 -14 20 18 -5 -20 -17 24 -23 -19 -15 26 27 28 31 -1 -31 -26
right_child=1 2 7 4 5 -7 14 -9 -10 -11 -12 12 15 21 -16 16 -18 23 19 -21 -22 22 -24 -25 25 -27 -28 -29 -30 30 -32 -33
leaf_parent=29 10 8 7 18 6 5 14 7 8 9 10 12 15 24 14 20 16 23 19 19 20 22 22 23 31 25 26 27 28 30 30 31
leaf_value=-0.069937666861414463 -0.063554715218135799 -0.056796591794951112 -0.047869755158596393 -0.072924946297438328 -0.056840065124075558 -0.052166639012833443 -0.07041024943315799 -0.027197798490199068 -0.06871724928151593 -0.075053541340132132 -0.072429540754631705 -0.060837872407451588 -0.074811933594092356 -0.075109191690294758 -0.06270448882567814 -0.068653682004643751 -0.065632022430920631 -0.064787761419713347 -0.06492212499330699 -0.072072031018874355 -0.074734954933656519 -0.067219680079359953 -0.07432598391487405 -0.06835707904766157 -0.073744360743298473 -0.075117922382854571 -0.070927026633583426 -0.075393249855556871 -0.071324289682204597 -0.07414537341245693 -0.069148609915411371 -0.073698652291594072
leaf_count=222 58 50 64 100 64 95 63 50 65 87 87 81 96 95 61 50 63 50 63 50 50 56 88 87 50 95 52 52 81 51 57 67
internal_value=0 -0.66147866368939989 -0.55984388833020526 -0.67526133791954368 -0.65756080813901874 -0.60169159714838027 -0.63374074591456564 -0.41499719922407152 -0.62897863326589531 -0.71305123804738013 -0.68972285387082655 -0.71661582581529859 -0.69260879570196388 -0.72366178749978949 -0.67233206388298972 -0.71729591411900029 -0.69880647560965281 -0.69178396212894167 -0.70541179126913589 -0.68441810264680736 -0.71645930591649265 -0.73328772025000133 -0.71379206023129749 -0.66944585781344934 -0.73730923747762445 -0.73390581686851131 -0.72913324304721649 -0.7328833098942904 -0.7273689534830674 -0.70517675336434449 -0.71496221351774869 -0.7371778687230921
internal_count=2400 1094 229 865 633 283 188 114 115 232 145 1306 340 966 124 259 163 350 213 113 100 636 144 137 492 397 302 250 198 330 108 117


Tree=5
num_leaves=34
split_feature=6 1 2 3 1 6 6 1 1 2 1 2 1 2 2 2 1 6 6 1 2 2 1 2 2 1 1 1 2 1 1 2 2
split_gain=0.49717022066135996 1.3144079060087108 0.54527025823632336 0.19370277673738201 0.20275677209394871 0.15753265834680974 0.10604567471438742 0.094943931422108108 0.16631699780850795 0.081995113570258127 0.1556248154856803 0.095888776369946527 0.27275027755010228 0.097005337510019274 0.09516571560193654 0.088115455930221742 0.33323797611976147 0.038347992646016849 0.054957492064584557 0.032548251952931651 0.023570082576213736 0.023149025715895277 0.067247439327331904 0.020448393119309571 0.023161707640170448 0.013197142373648774 0.0095585978835259766 0.0049488571853366636 0.0039025284883820177 0.029358928266297823 0.0022908813191762079 0.0020696719764856653 0.00082417516597388385
threshold=0.5 5.5 5.5 0.5 2.5 16.5 12.5 5.5 6.5 43.5 33.5 22.5 19.5 18.5 37.5 12.5 13.5 11.5 13.5 38.5 1.5 5.5 7.5 6.5 7.5 10.5 3.5 57.5 2.5 4.5 16.5 25.5 9.5
decision_type=0 0 0 0 0 0 0 0 0 0 0 0 0 0 0 0 0 0 0 0 0 0 0 0 0 0 0 0 0 0 0 0 0
left_child=3 5 6 4 -1 17 -3 20 -9 10 11 12 15 -14 19 16 21 -2 -19 -12 26 22 -10 -23 -25 -26 -6 -11 -22 -30 -17 -13 -27
right_child=1 2 -4 -5 7 -7 -8 8 9 27 14 31 13 -15 -16 30 -18 18 -20 -21 28 23 -24 24 25 32 -28 -29 29 -31 -32 -33 -34
leaf_parent=4 17 6 2 3 26 5 6 8 22 27 19 31 13 13 14 30 16 18 18 19 28 23 22 24 25 32 26 27 29 29 30 31 32
leaf_value=-0.062257477122276389 -0.070650646341147372 -0.048152236806700666 -0.026503074930354517 -0.057473674449031731 -0.069110046076756623 -0.06211668465564002 -0.057129249432919194 -0.061784102354801362 -0.070200249349961691 -0.071723876250181673 -0.063252624772000304 -0.070555849622438715 -0.055680936479399451 -0.063862693857975994 -0.067464883979750437 -0.070599200462972023 -0.059078211931448979 -0.063945615976307685 -0.069679158321301823 -0.058840767736231481 -0.070932262128757792 -0.071244486904361012 -0.064447577660791594 -0.066739822775591748 -0.068057910146820472 -0.070637995195707862 -0.066763345389419554 -0.069896323192589177 -0.067757700991805891 -0.071490343630893294 -0.071631042497967742 -0.071647767817668503 -0.069972522705899209
leaf_count=124 75 59 52 78 58 101 67 86 62 64 78 50 65 91 88 73 83 53 61 82 69 62 82 68 60 53 66 72 53 67 63 70 65
internal_value=0 -0.61840715522977263 -0.49396654384617822 -0.66905728950029075 -0.67094934005860374 -0.66317931322232127 -0.53212257685110165 -0.67488835005709125 -0.66989804960306454 -0.67398305705481731 -0.67078099416043802 -0.67752485365107806 -0.67250547806893801 -0.6151594566859927 -0.63607429101441326 -0.68229837092668988 -0.67474696615127516 -0.68479173423739303 -0.66937657326342148 -0.613268528133466 -0.6942243511944628 -0.68688238204174534 -0.67261183495615484 -0.69255935526637702 -0.68752903757350758 -0.69458117784887863 -0.67930107378356319 -0.70929344336522715 -0.70204913650393697 -0.69799723116313694 -0.71042673391696665 -0.71183939326857659 -0.70238189290494624
internal_count=2400 468 178 1932 1854 290 126 1730 1417 1331 1195 947 827 156 248 671 535 189 114 160 313 452 144 308 246 178 124 136 189 120 136 120 118


Tree=6
num_leaves=34
split_feature=7 3 1 7 7 1 7 6 1 1 1 1 7 1 6 1 1 1 7 4 7 1 1 1 1 1 4 1 1 1 1 1 1
split_gain=1.4266148775836314 0.48727171956375059 0.2531048292010496 0.24306811651703697 0.44247576695860857 0.36628449189435841 0.31885730184556849 0.61223153951296538 0.21248159052134952 0.61328047115178563 0.17193733325348859 0.14091661035186576 0.10972862981464004 0.11377082666965066 0.098045876644796692 0.1762119522871366 0.083659229310306671 0.065791235788317692 0.059627902824345824 0.029658154724536701 0.01993672886217368 0.01294633152821234 0.043730403233254833 0.030276253869686798 0.021681523611036368 0.044257600208087666 0.011495199376895471 0.0089556759432198874 0.0021148028891673221 0.0018562520182925368 0.0017370244828818215 0.0002390642662959408 0.00011479214989762454
threshold=14.5 0.5 2.5 16.5 19.5 14.5 23.5 8.5 16.5 26.5 1.5 13.5 7.5 5.5 9.5 3.5 18.5 39.5 11.5 0.5 30.5 14.5 20.5 5.5 37.5 43.5 0.5 12.5 8.5 3.5 52.5 11.5 28.5
decision_type=0 0 0 0 0 0 0 0 0 0 0 0 0 0 0 0 0 0 0 0 0 0 0 0 0 0 0 0 0 0 0 0 0
left_child=2 3 10 5 16 -2 7 11 14 -10 -1 -6 21 -14 20 -16 19 -11 -15 -5 -8 23 -23 26 32 -26 29 -20 -25 -4 -27 -30 -24
right_child=1 -3 12 4 6 -7 8 -9 9 17 -12 -13 13 18 15 -17 -18 -19 27 -21 -22 22 24 28 25 30 -28 -29 31 -31 -32 -33 -34
leaf_parent=10 5 1 29 19 11 5 20 7 9 17 10 11 13 18 15 15 16 17 27 19 20 22 32 28 25 30 26 27 31 29 30 31 32
leaf_value=-0.067014012182752866 -0.050336335030150142 -0.044025824906940209 -0.065993191978052229 -0.064978843410295486 -0.05412995768408977 -0.065469873141239907 -0.067139577945336537 -0.040095293855340074 -0.037421210009422189 -0.063849714666257495 -0.057799394270975496 -0.062709881478689361 -0.068130426230144911 -0.059622435925240386 -0.065194200914893752 -0.0549439698535409 -0.060466302844287972 -0.056525459044586272 -0.063019813942976524 -0.068743440829644759 -0.06380862902921472 -0.063993513188518467 -0.068937663093616319 -0.068823448367596463 -0.062940740115952229 -0.068711914926533807 -0.0673356859676673 -0.065428181237607214 -0.067955592658099417 -0.064901827921751545 -0.067465648786321497 -0.068287661341490447 -0.068666246159911723
leaf_count=50 98 94 55 64 66 52 68 63 51 77 98 94 84 74 52 81 54 73 54 89 59 81 54 132 50 55 103 67 75 62 53 68 50
internal_value=0 -0.58870670053638818 -0.6572373488367681 -0.59503513841036337 -0.60474859262569003 -0.54473308349553584 -0.58515544724554902 -0.53914539431957909 -0.60778888406080678 -0.56106220811874652 -0.60817034308543905 -0.58302746217017976 -0.6642735991579144 -0.64140963370472137 -0.62994583082290911 -0.60245934960188152 -0.65891057184147961 -0.61078154642315685 -0.62337558087721079 -0.67283351403471681 -0.65556793385362211 -0.67175869418183809 -0.66514471934399877 -0.67581104278847626 -0.67459725461195585 -0.66259284588259049 -0.66433115941412435 -0.64354141670694598 -0.68461624807890464 -0.65453518032040314 -0.6814490700969682 -0.68116808886123736 -0.6881294731852855
internal_count=2400 1135 1265 1041 891 150 684 223 461 201 148 160 1117 279 260 133 207 150 195 153 127 838 343 495 262 158 220 121 275 117 108 143 104


Tree=7
num_leaves=34
split_feature=7 5 1 7 1 7 7 1 1 1 1 7 1 5 7 1 1 1 5 5 7 7 1 1 1 1 1 4 1 1 1 1 1
split_gain=1.4567641045534288 0.61212107055101228 1.4311469905771901 0.4343066619241327 0.78318225443715761 0.31329053783627359 0.51118545074651323 0.25219736163813877 0.21878696105157758 0.16830670269001047 0.16830468783685681 0.15328688934188506 0.27657764537852358 0.65091681859517081 0.11699339913525364 0.11739183077204274 0.098041608237380728 0.25357728627299281 0.061973647998648573 0.14156562418517282 0.016008004112997298 0.015698650040054218 0.013369213342372177 0.044773158060294804 0.032117330818564938 0.022766259735647054 0.04790732425569999 0.01193627289918453 0.0021317881232363334 0.0019978402365516956 0.001726953112338947 0.00024957058268171295 7.5649107166952945e-05
threshold=14.5 5.6904761904761898 5.5 23.5 18.5 20.5 24.5 2.5 8.5 1.5 10.5 16.5 15.5 2.7709790209790217 7.5 5.5 33.5 42.5 1.535897435897436 0.69292803970223327 19.5 17.5 14.5 20.5 5.5 37.5 43.5 0.5 8.5 3.5 52.5 11.5 28.5
decision_type=0 0 0 0 0 0 0 0 0 0 0 0 0 0 0 0 0 0 0 0 0 0 0 0 0 0 0 0 0 0 0 0 0
left_child=7 11 5 8 10 21 -7 9 -4 -1 -5 -2 20 16 22 -16 -14 -18 19 -17 -13 -3 24 -24 27 32 -27 29 -26 -9 -28 -30 -25
right_child=1 2 3 4 -6 6 -8 14 -10 -11 -12 12 13 -15 15 18 17 -19 -20 -21 -22 -23 23 25 28 26 30 -29 31 -31 -32 -33 -34
leaf_parent=9 11 21 8 10 4 6 6 29 8 9 10 20 16 13 15 19 17 17 18 19 20 21 23 32 28 26 30 27 31 29 30 31 32
leaf_value=-0.064437758544767645 -0.054251312212691527 -0.06632717083454541 -0.030919753235142927 -0.057827860167921352 -0.021785176043016715 -0.045124991569905293 -0.061415422683188253 -0.063419541087893092 -0.044087939574699399 -0.055044161136421445 -0.045556163609288831 -0.067143493927833128 -0.064591053068693519 -0.040902146712213198 -0.065624799085358773 -0.056161498939092093 -0.04979160824800747 -0.063664923513521057 -0.05677725061091049 -0.066127205867997085 -0.064230545468555181 -0.063036721842211804 -0.061343909266014664 -0.066498958594441326 -0.066403110893193493 -0.060145352841813195 -0.06630959563976789 -0.064820589551677063 -0.065499803926675593 -0.062252053259442157 -0.06502551625952839 -0.065850353448962964 -0.066271220131873018
leaf_count=50 90 61 53 86 69 60 89 55 77 98 57 56 95 82 84 50 52 91 92 53 66 51 81 54 132 50 55 103 75 62 53 68 50
internal_value=0 -0.56014457657427441 -0.52606659092058139 -0.44229653732724117 -0.49788182695485256 -0.59320002413605444 -0.55336736231208095 -0.63138141727659547 -0.37328202163687246 -0.58101477802945145 -0.54248224408032675 -0.59665068135419308 -0.60856972276827526 -0.57842291526105594 -0.63864774648821454 -0.61434551468469012 -0.61078523351530822 -0.58278589783966805 -0.59555087544418917 -0.61723113530904561 -0.65569221866321181 -0.64887523106887324 -0.64664168347657791 -0.63970727289440754 -0.65089616526493699 -0.64959914598267465 -0.63691960867340658 -0.63870389521467241 -0.66027573211830104 -0.62841696115333023 -0.65725005054446417 -0.65669953882841248 -0.66394340603456359
internal_count=2400 1135 603 342 212 261 149 1265 130 148 143 532 442 320 1117 279 238 143 195 103 122 112 838 343 495 262 158 220 275 117 108 143 104


Tree=8
num_leaves=31
split_feature=7 5 2 2 5 5 7 7 7 2 5 2 7 5 7 2 2 2 5 2 2 6 2 2 7 2 2 2 2 2
split_gain=1.4970883199148943 0.60832482480338967 1.0305135955433755 0.36836240148841171 0.34342610114478234 0.4046855957722002 0.14986006570254062 0.31670486262327557 0.14985591532915521 0.25516499663737591 0.5817055782557361 0.14600223797162926 0.17482673328649412 0.16705176312241221 0.10697774965944973 0.16212401887268157 0.084030719768040996 0.2336101549262537 0.040173918061727321 0.028537019676207365 0.063859096149407435 0.024468858160652474 0.013211113383050588 0.030158517464002443 0.013082477874995391 0.0081419711953714113 0.02584812369843803 0.0069357093699906613 0.0017982414986832396 0.0032515592000450511
threshold=14.5 5.6904761904761898 9.5 2.5 16.0625 8.9439393939393952 24.5 19.5 16.5 13.5 2.7709790209790217 2.5 9.5 2.2886904761904763 8.5 1.5 34.5 27.5 12.845238095238098 34.5 40.5 11.5 8.5 12.5 19.5 17.5 23.5 0.5 4.5 6.5
decision_type=0 0 0 0 0 0 0 0 0 0 0 0 0 0 0 0 0 0 0 0 0 0 0 0 0 0 0 0 0 0
left_child=11 8 3 6 5 -5 7 -3 -2 24 16 14 19 -14 15 27 17 -11 -7 22 -21 -16 28 -24 -10 -25 -27 -1 -13 -30
right_child=1 2 -4 4 -6 18 -8 -9 9 10 -12 12 13 -15 21 -17 -18 -19 -20 20 -22 -23 23 25 -26 26 -28 -29 29 -31
leaf_parent=27 8 7 2 5 4 18 6 7 24 17 10 28 13 13 21 15 16 17 18 20 20 21 23 25 24 26 26 27 29 29
leaf_value=-0.058760334058365796 -0.051712976474273392 -0.057948311235395289 -0.024568029117978833 -0.043341290874446152 -0.037905694621867006 -0.059768884332985495 -0.060252555149408561 -0.044104889992313441 -0.064487406701726702 -0.061315377118597636 -0.039389578724716087 -0.064597438273012328 -0.05436993310465596 -0.063494546729444296 -0.06434956101456811 -0.051534033193190824 -0.062413187424327221 -0.047940188016336933 -0.05374839464211071 -0.056602139220429254 -0.063603854226957121 -0.060166164274362291 -0.060584580684748673 -0.064801163094637043 -0.061791563304434555 -0.060517125850412329 -0.064573353928463362 -0.060442128842300151 -0.063119071054429099 -0.064480232089245651
leaf_count=222 90 90 92 80 82 62 87 59 60 80 80 103 99 70 59 61 98 54 51 53 88 53 77 70 70 50 80 57 57 66
internal_value=0 -0.53452001890592593 -0.49974933815499034 -0.51652354475486129 -0.47585938099815583 -0.50742556288611718 -0.55646002021572349 -0.52803225244596985 -0.57210330835148171 -0.58428876401175323 -0.55412531655230479 -0.60892359086789327 -0.6199774204546159 -0.57928685250549561 -0.58845623684596438 -0.57579844896511168 -0.58689619440502927 -0.56235917151713954 -0.57194036720785035 -0.6302308667200639 -0.6094823696553392 -0.62580191498631865 -0.63434025474486533 -0.62801900830792812 -0.63048559877997035 -0.63700156470942371 -0.63013929293385251 -0.59166407480842642 -0.64182142279458931 -0.63843707232779168
internal_count=2400 1135 603 511 275 193 236 149 532 442 312 1265 813 169 452 340 232 134 113 644 141 112 503 277 130 200 130 279 226 123


Tree=9
num_leaves=35
split_feature=7 3 1 2 1 7 7 7 1 2 1 2 1 7 7 1 2 2 7 7 2 1 1 2 2 1 7 1 1 1 2 2 1 2
split_gain=1.5527547985968795 0.53029137275650839 0.27816133338674831 0.25038932439338168 1.4471225542783799 0.38610873230908282 0.47102545913672955 0.3784828486482894 0.30386878748625179 0.23762352289051591 0.64811731589513855 0.26845582797776402 0.18332992019715633 0.16451657224714467 0.13982481613834352 0.13164441135971572 0.076177210449607458 0.18115672598987587 0.060342880247607589 0.033251500445443227 0.024974407690621092 0.040556055975656591 0.054499586970251812 0.040666887135095919 0.065975911464342119 0.018039029110106242 0.01677502467330072 0.0084502167827480434 0.0076691604831964355 0.0045837605828324968 0.0069110314660250083 0.0018892060398414401 0.00068885933844597957 6.3324197906666768e-05
threshold=14.5 0.5 2.5 5.5 5.5 20.5 24.5 23.5 11.5 34.5 34.5 12.5 1.5 27.5 7.5 5.5 8.5 18.5 22.5 22.5 1.5 14.5 20.5 34.5 40.5 9.5 17.5 21.5 4.5 4.5 3.5 5.5 11.5 27.5
decision_type=0 0 0 0 0 0 0 0 0 0 0 0 0 0 0 0 0 0 0 0 0 0 0 0 0 0 0 0 0 0 0 0 0 0
left_child=2 3 12 4 5 26 -7 -6 25 10 11 18 -1 27 20 -16 -17 -18 -10 -11 28 29 -23 33 -25 -5 -2 -13 -4 -22 -31 -32 -33 -24
right_child=1 -3 14 8 7 6 -8 -9 9 19 -12 13 -14 -15 15 16 17 -19 -20 -21 21 22 23 24 -26 -27 -28 -29 -30 30 31 32 -34 -35
leaf_parent=12 26 1 28 25 7 6 6 7 18 19 10 27 12 13 15 16 17 17 18 19 29 22 33 24 24 25 26 27 28 30 31 32 32 33
leaf_value=-0.060365822118382623 -0.062613274016318582 -0.03473319510291184 -0.058142060021652724 -0.061904019710890892 -0.031232103276988221 -0.040420436833118092 -0.056798763311704858 -0.046762409783015824 -0.041380123223042298 -0.061633992343702107 -0.028562357778191938 -0.060082609372760248 -0.049903249248472351 -0.048352940018268932 -0.061673022754105022 -0.051410930521065538 -0.063085677170809235 -0.051344863314008539 -0.049684631391785777 -0.055783359554637146 -0.063134532244287223 -0.056706954334009296 -0.062713184585321879 -0.054399557947523429 -0.061787727819307407 -0.058358498502210511 -0.059216134774428747 -0.057540468473773809 -0.06036542491812881 -0.060326730063292179 -0.061528672181481836 -0.062634704052681567 -0.062049501350736995 -0.062925412737737108
leaf_count=50 71 94 99 63 92 61 88 73 52 54 65 55 98 64 84 86 52 57 54 62 56 79 71 53 87 51 54 82 66 56 65 89 66 51
internal_value=0 -0.51094881445956841 -0.58910530206293099 -0.51832009959343317 -0.49271372567051996 -0.55257522776747614 -0.50414765524610328 -0.37195047332083947 -0.54156150488852406 -0.51931569982577908 -0.49784010028993575 -0.52258873592310484 -0.53280909300429535 -0.55643519448346435 -0.5973053790923285 -0.56900764393980596 -0.54796494324354372 -0.57269712082756885 -0.45081893620363678 -0.58750468967191216 -0.60670019899457395 -0.61032661697709767 -0.59821521340206529 -0.60989708438720258 -0.58928497911178368 -0.6034955385148284 -0.61214644735116486 -0.58648341662608627 -0.58925896866467897 -0.620570390317982 -0.61816829774502724 -0.62137097160041388 -0.62397597792362858 -0.62800885516395288
internal_count=2400 1135 1265 1041 439 274 149 165 602 488 372 307 148 201 1117 279 195 109 106 116 838 673 341 262 140 114 125 137 165 332 276 220 155 122



feature importances:
=133
customerid=71
call_times=59
=41
=14
=7
callhisid=5

feature information:
weight=trival feature
=[1,149]
customerid=[0,142]
=[0,1]
callhisid=[0,1]
=[0,58]
=[0,58]
call_times=[0,69]
=trival feature
connect_times=trival feature
=trival feature
=trival feature
has_callin=trival feature
=trival feature
has_staff_hangup=trival feature
=trival feature
=trival feature
=trival feature
avg_waittime=trival feature
=trival feature
=trival feature
=trival feature
min_waittime=trival feature
=trival feature
=trival feature
=trival feature
max_waittime=trival feature
=trival feature
=trival feature
=trival feature
avg_onlinetime=trival feature
=trival feature
min_onlinetime=trival feature
=trival feature
max_onlinetime=trival feature
=trival feature
all_call_waittime=trival feature
=trival feature
=trival feature
all_call_onlinetime=trival feature
comments=trival feature
=trival feature
=trival feature
=trival feature
datasource=trival feature
=trival feature
location=trival feature
=trival feature
=trival feature
=trival feature
callresult=trival feature
=trival feature
calltime=trival feature
=trival feature
=trival feature
=trival feature
mobile_type=trival feature
phone=trival feature
=trival feature
=trival feature
gap=trival feature
is_old=trival feature
=trival feature
one_month_innum=trival feature
two_month_innum=trival feature
three_month_innum=trival feature
=trival feature
=trival feature
day=trival feature
str_zhengxin=trival feature
=trival feature
=trival feature
=trival feature
str_jujie=trival feature
=trival feature
=trival feature
str_zhuce=trival feature
=trival feature
=trival feature
str_mingtian=trival feature
=trival feature
=trival feature
=trival feature
str_mendian=trival feature
str_kaolv=trival feature
=trival feature
=trival feature
str_feilv=trival feature
=trival feature
=trival feature
str_daka=trival feature
=trival feature
=trival feature
=trival feature
str_guanji=trival feature
=trival feature
str_bu=trival feature
=trival feature
str_jie=trival feature
online_ascending_num=trival feature
=trival feature
=trival feature
=trival feature
online_decsending_num=trival feature
=trival feature
=trival feature
waittime_ascending_num=trival feature
=trival feature
waittime_decsending_num=trival feature
avg_comments_cnt=trival feature
